digraph Tree {
node [shape=box, style="filled, rounded", color="black", fontname=helvetica] ;
edge [fontname=helvetica] ;
0 [label="education_level <= 7.5\ngini = 0.3\nsamples = 1143\nvalue = [958, 185]", fillcolor="#ea995f"] ;
1 [label="durable_asset <= 81278004.0\ngini = 0.4\nsamples = 263\nvalue = [203, 60]", fillcolor="#eda674"] ;
0 -> 1 [labeldistance=2.5, labelangle=45, headlabel="True"] ;
2 [label="Age <= 77.0\ngini = 0.3\nsamples = 256\nvalue = [202, 54]", fillcolor="#eca36e"] ;
1 -> 2 ;
3 [label="lasting_investment <= 95881544.0\ngini = 0.3\nsamples = 249\nvalue = [200, 49]", fillcolor="#eba06a"] ;
2 -> 3 ;
4 [label="farm_expenses <= 71957944.0\ngini = 0.3\nsamples = 247\nvalue = [200, 47]", fillcolor="#eb9f68"] ;
3 -> 4 ;
5 [label="gini = 0.3\nsamples = 228\nvalue = [189, 39]", fillcolor="#ea9b62"] ;
4 -> 5 ;
6 [label="gini = 0.5\nsamples = 19\nvalue = [11, 8]", fillcolor="#f8ddc9"] ;
4 -> 6 ;
7 [label="gini = 0.0\nsamples = 2\nvalue = [0, 2]", fillcolor="#399de5"] ;
3 -> 7 ;
8 [label="total_members <= 2.5\ngini = 0.4\nsamples = 7\nvalue = [2, 5]", fillcolor="#88c4ef"] ;
2 -> 8 ;
9 [label="Age <= 86.0\ngini = 0.4\nsamples = 3\nvalue = [2, 1]", fillcolor="#f2c09c"] ;
8 -> 9 ;
10 [label="gini = 0.0\nsamples = 2\nvalue = [2, 0]", fillcolor="#e58139"] ;
9 -> 10 ;
11 [label="gini = 0.0\nsamples = 1\nvalue = [0, 1]", fillcolor="#399de5"] ;
9 -> 11 ;
12 [label="gini = 0.0\nsamples = 4\nvalue = [0, 4]", fillcolor="#399de5"] ;
8 -> 12 ;
13 [label="sex <= 0.5\ngini = 0.2\nsamples = 7\nvalue = [1, 6]", fillcolor="#5aade9"] ;
1 -> 13 ;
14 [label="gini = 0.0\nsamples = 1\nvalue = [1, 0]", fillcolor="#e58139"] ;
13 -> 14 ;
15 [label="gini = 0.0\nsamples = 6\nvalue = [0, 6]", fillcolor="#399de5"] ;
13 -> 15 ;
16 [label="save_asset <= 94361704.0\ngini = 0.2\nsamples = 880\nvalue = [755, 125]", fillcolor="#e9965a"] ;
0 -> 16 [labeldistance=2.5, labelangle=-45, headlabel="False"] ;
17 [label="other_expenses <= 93689916.0\ngini = 0.2\nsamples = 864\nvalue = [746, 118]", fillcolor="#e99558"] ;
16 -> 17 ;
18 [label="Age <= 28.5\ngini = 0.2\nsamples = 850\nvalue = [738, 112]", fillcolor="#e99457"] ;
17 -> 18 ;
19 [label="other_expenses <= 249039.0\ngini = 0.2\nsamples = 411\nvalue = [370, 41]", fillcolor="#e88f4f"] ;
18 -> 19 ;
20 [label="gini = 0.0\nsamples = 1\nvalue = [0, 1]", fillcolor="#399de5"] ;
19 -> 20 ;
21 [label="gini = 0.2\nsamples = 410\nvalue = [370, 40]", fillcolor="#e88f4e"] ;
19 -> 21 ;
22 [label="save_asset <= 14113258.5\ngini = 0.3\nsamples = 439\nvalue = [368, 71]", fillcolor="#ea995f"] ;
18 -> 22 ;
23 [label="gini = 0.5\nsamples = 37\nvalue = [23, 14]", fillcolor="#f5ceb2"] ;
22 -> 23 ;
24 [label="gini = 0.2\nsamples = 402\nvalue = [345, 57]", fillcolor="#e9965a"] ;
22 -> 24 ;
25 [label="living_expenses <= 22354787.0\ngini = 0.5\nsamples = 14\nvalue = [8, 6]", fillcolor="#f8e0ce"] ;
17 -> 25 ;
26 [label="gini = 0.0\nsamples = 3\nvalue = [0, 3]", fillcolor="#399de5"] ;
25 -> 26 ;
27 [label="farm_expenses <= 29263640.0\ngini = 0.4\nsamples = 11\nvalue = [8, 3]", fillcolor="#efb083"] ;
25 -> 27 ;
28 [label="gini = 0.0\nsamples = 5\nvalue = [5, 0]", fillcolor="#e58139"] ;
27 -> 28 ;
29 [label="gini = 0.5\nsamples = 6\nvalue = [3, 3]", fillcolor="#ffffff"] ;
27 -> 29 ;
30 [label="incoming_agricultural <= 85215116.0\ngini = 0.5\nsamples = 16\nvalue = [9, 7]", fillcolor="#f9e3d3"] ;
16 -> 30 ;
31 [label="lasting_investment <= 66707134.0\ngini = 0.4\nsamples = 13\nvalue = [9, 4]", fillcolor="#f1b991"] ;
30 -> 31 ;
32 [label="gained_asset <= 4299411.5\ngini = 0.3\nsamples = 11\nvalue = [9, 2]", fillcolor="#eb9d65"] ;
31 -> 32 ;
33 [label="gini = 0.0\nsamples = 1\nvalue = [0, 1]", fillcolor="#399de5"] ;
32 -> 33 ;
34 [label="gini = 0.2\nsamples = 10\nvalue = [9, 1]", fillcolor="#e88f4f"] ;
32 -> 34 ;
35 [label="gini = 0.0\nsamples = 2\nvalue = [0, 2]", fillcolor="#399de5"] ;
31 -> 35 ;
36 [label="gini = 0.0\nsamples = 3\nvalue = [0, 3]", fillcolor="#399de5"] ;
30 -> 36 ;
}